[
    {
        "config": {
            "batch_input_shape": [
                null,
                100,
                100,
                3
            ],
            "dtype": "float32",
            "name": "input_1",
            "sparse": false
        },
        "name": "input_1",
        "weights": []
    },
    {
        "config": {
            "activation": "relu",
            "activity_regularizer": null,
            "bias_constraint": null,
            "bias_initializer": {
                "class_name": "Zeros",
                "config": {}
            },
            "bias_regularizer": null,
            "data_format": "channels_last",
            "dilation_rate": [
                1,
                1
            ],
            "filters": 4,
            "kernel_constraint": null,
            "kernel_initializer": {
                "class_name": "VarianceScaling",
                "config": {
                    "distribution": "uniform",
                    "mode": "fan_avg",
                    "scale": 1.0,
                    "seed": null
                }
            },
            "kernel_regularizer": null,
            "kernel_size": [
                3,
                3
            ],
            "name": "conv2d_1",
            "padding": "same",
            "strides": [
                1,
                1
            ],
            "trainable": true,
            "use_bias": true
        },
        "name": "conv2d_1",
        "weights": [
            [
                [
                    [
                        [
                            -0.06762947142124176,
                            0.6048666834831238,
                            0.20400407910346985,
                            0.12683750689029694
                        ],
                        [
                            0.009875541552901268,
                            0.3231186866760254,
                            0.13162003457546234,
                            0.4011146128177643
                        ],
                        [
                            -0.0751974806189537,
                            0.5445179343223572,
                            -0.11079885065555573,
                            0.32203176617622375
                        ]
                    ],
                    [
                        [
                            -0.4390450417995453,
                            0.5480887293815613,
                            0.31420081853866577,
                            0.682676374912262
                        ],
                        [
                            0.04649360477924347,
                            0.26091933250427246,
                            0.04579982906579971,
                            0.8892818689346313
                        ],
                        [
                            -0.13509468734264374,
                            0.7357577681541443,
                            0.04510624706745148,
                            0.629514217376709
                        ]
                    ],
                    [
                        [
                            0.17346233129501343,
                            0.5152056217193604,
                            0.2052517533302307,
                            0.485239714384079
                        ],
                        [
                            -0.15903659164905548,
                            0.3118435740470886,
                            -0.48708575963974,
                            0.4725213646888733
                        ],
                        [
                            0.15508991479873657,
                            0.23496848344802856,
                            0.04981888830661774,
                            0.4671615958213806
                        ]
                    ]
                ],
                [
                    [
                        [
                            -0.2334260791540146,
                            -0.6040021777153015,
                            -0.6902809739112854,
                            -0.01475502923130989
                        ],
                        [
                            -0.43523192405700684,
                            -0.6641443371772766,
                            0.007113503757864237,
                            -0.2947251796722412
                        ],
                        [
                            0.10157012194395065,
                            -0.25102904438972473,
                            -0.16664563119411469,
                            -0.18645812571048737
                        ]
                    ],
                    [
                        [
                            -0.10583361238241196,
                            -0.48331567645072937,
                            -0.32391104102134705,
                            -0.15354648232460022
                        ],
                        [
                            -0.39968612790107727,
                            -0.6145219802856445,
                            0.24563272297382355,
                            -0.38970133662223816
                        ],
                        [
                            -0.38013315200805664,
                            -0.11406783759593964,
                            0.23511716723442078,
                            -0.033089376986026764
                        ]
                    ],
                    [
                        [
                            0.014406487345695496,
                            0.11697666347026825,
                            0.5719171762466431,
                            -0.13483944535255432
                        ],
                        [
                            -0.18208104372024536,
                            0.05997108295559883,
                            0.5382624268531799,
                            -0.09943810105323792
                        ],
                        [
                            0.10579513013362885,
                            0.4314100742340088,
                            0.11676813662052155,
                            -0.28802958130836487
                        ]
                    ]
                ],
                [
                    [
                        [
                            0.4245779514312744,
                            -0.2430935651063919,
                            -0.6946234107017517,
                            0.08486012369394302
                        ],
                        [
                            0.2293033003807068,
                            -0.3572603166103363,
                            -0.36384275555610657,
                            -0.6956441402435303
                        ],
                        [
                            0.23265118896961212,
                            0.39256948232650757,
                            -0.08358179032802582,
                            -0.13250993192195892
                        ]
                    ],
                    [
                        [
                            0.23172231018543243,
                            0.07543793320655823,
                            -1.0312155485153198,
                            0.0100687425583601
                        ],
                        [
                            0.324993371963501,
                            -0.15397991240024567,
                            -0.302489697933197,
                            -0.38231900334358215
                        ],
                        [
                            0.19976647198200226,
                            -0.0743865966796875,
                            -0.14077746868133545,
                            -0.2708640992641449
                        ]
                    ],
                    [
                        [
                            0.3887542486190796,
                            -0.6040762662887573,
                            -0.1400575041770935,
                            -0.1828480362892151
                        ],
                        [
                            0.31609484553337097,
                            -0.8030148148536682,
                            0.41394126415252686,
                            -0.32278457283973694
                        ],
                        [
                            0.33428940176963806,
                            -0.08282681554555893,
                            -0.006671958137303591,
                            -0.23616953194141388
                        ]
                    ]
                ]
            ],
            [
                0.104037344455719,
                -0.4523008465766907,
                -0.2274341732263565,
                0.26568225026130676
            ]
        ]
    },
    {
        "config": {
            "activation": "relu",
            "activity_regularizer": null,
            "bias_constraint": null,
            "bias_initializer": {
                "class_name": "Zeros",
                "config": {}
            },
            "bias_regularizer": null,
            "data_format": "channels_last",
            "dilation_rate": [
                1,
                1
            ],
            "filters": 4,
            "kernel_constraint": null,
            "kernel_initializer": {
                "class_name": "VarianceScaling",
                "config": {
                    "distribution": "uniform",
                    "mode": "fan_avg",
                    "scale": 1.0,
                    "seed": null
                }
            },
            "kernel_regularizer": null,
            "kernel_size": [
                3,
                3
            ],
            "name": "conv2d_2",
            "padding": "same",
            "strides": [
                1,
                1
            ],
            "trainable": true,
            "use_bias": true
        },
        "name": "conv2d_2",
        "weights": [
            [
                [
                    [
                        [
                            0.053274594247341156,
                            -0.07942886650562286,
                            -0.23897165060043335,
                            0.2860371172428131
                        ],
                        [
                            0.12097620218992233,
                            -0.27291664481163025,
                            -0.2294178009033203,
                            -0.6826398372650146
                        ],
                        [
                            0.002153801266103983,
                            0.20554094016551971,
                            0.3124447166919708,
                            -0.8462956547737122
                        ],
                        [
                            0.07094930112361908,
                            -0.12112864851951599,
                            0.22892625629901886,
                            -0.8283893465995789
                        ]
                    ],
                    [
                        [
                            -0.6021795272827148,
                            0.21275852620601654,
                            -0.13419969379901886,
                            0.5901121497154236
                        ],
                        [
                            0.07233505696058273,
                            -0.310889333486557,
                            -0.6510637402534485,
                            -0.421006441116333
                        ],
                        [
                            -0.12662969529628754,
                            0.04939911514520645,
                            -0.21544526517391205,
                            -0.370770663022995
                        ],
                        [
                            0.13038039207458496,
                            -0.31780117750167847,
                            -0.14669425785541534,
                            -0.6493600010871887
                        ]
                    ],
                    [
                        [
                            -0.1922064870595932,
                            0.48479506373405457,
                            0.40626776218414307,
                            -0.21673914790153503
                        ],
                        [
                            -0.9219621419906616,
                            -0.04425874352455139,
                            -0.05709637701511383,
                            0.004967945162206888
                        ],
                        [
                            0.15267778933048248,
                            -0.32192111015319824,
                            -0.6388234496116638,
                            0.5967095494270325
                        ],
                        [
                            0.6180844306945801,
                            -0.7322520613670349,
                            0.008365988731384277,
                            0.15832005441188812
                        ]
                    ]
                ],
                [
                    [
                        [
                            0.11647169291973114,
                            0.1984025239944458,
                            -0.09909164905548096,
                            -0.03163556009531021
                        ],
                        [
                            -0.39606696367263794,
                            0.02923375554382801,
                            -0.15960587561130524,
                            -0.15581248700618744
                        ],
                        [
                            -0.31164881587028503,
                            -0.19848407804965973,
                            -0.4017271101474762,
                            0.056117042899131775
                        ],
                        [
                            0.35847580432891846,
                            0.38956418633461,
                            0.6087850332260132,
                            0.5312716364860535
                        ]
                    ],
                    [
                        [
                            0.2806418836116791,
                            -0.0911121517419815,
                            -0.020164789631962776,
                            -0.14575541019439697
                        ],
                        [
                            -0.42852622270584106,
                            -0.14387698471546173,
                            0.3677738904953003,
                            0.07613370567560196
                        ],
                        [
                            -0.5863074064254761,
                            0.10553137958049774,
                            -0.5160942077636719,
                            -0.24821901321411133
                        ],
                        [
                            0.04938897117972374,
                            -0.31715720891952515,
                            0.35334518551826477,
                            -1.1897284984588623
                        ]
                    ],
                    [
                        [
                            0.2658253312110901,
                            -0.3171151578426361,
                            -0.09150512516498566,
                            -0.2620038092136383
                        ],
                        [
                            0.18873240053653717,
                            0.5390571355819702,
                            -0.32586053013801575,
                            -0.29312920570373535
                        ],
                        [
                            -0.2845715582370758,
                            0.07729398459196091,
                            -0.06609954684972763,
                            0.4304586946964264
                        ],
                        [
                            0.5519990921020508,
                            -0.095847487449646,
                            -0.4769117534160614,
                            0.4682483375072479
                        ]
                    ]
                ],
                [
                    [
                        [
                            -0.012838891707360744,
                            0.27125734090805054,
                            -0.029472574591636658,
                            -0.07907354831695557
                        ],
                        [
                            0.7173163890838623,
                            -0.24012604355812073,
                            -1.2394394874572754,
                            -0.9485283493995667
                        ],
                        [
                            0.4139338731765747,
                            0.04076032713055611,
                            -0.715142011642456,
                            0.11006546020507812
                        ],
                        [
                            -0.30997326970100403,
                            -0.13587817549705505,
                            -0.05432913452386856,
                            0.19657228887081146
                        ]
                    ],
                    [
                        [
                            -0.2737199068069458,
                            0.009986614808440208,
                            0.16719944775104523,
                            -0.5715910196304321
                        ],
                        [
                            0.22394533455371857,
                            -0.27146002650260925,
                            -0.8309475779533386,
                            -0.9030534625053406
                        ],
                        [
                            0.8216385245323181,
                            -0.2356148064136505,
                            -0.30318504571914673,
                            -0.2551768124103546
                        ],
                        [
                            -0.7118135094642639,
                            0.3049270510673523,
                            0.04741320759057999,
                            -0.11540521681308746
                        ]
                    ],
                    [
                        [
                            -0.19388574361801147,
                            0.3424108624458313,
                            0.06608206033706665,
                            -0.13506831228733063
                        ],
                        [
                            0.3548853397369385,
                            -0.26930952072143555,
                            0.08699553459882736,
                            -0.684890866279602
                        ],
                        [
                            0.06524556875228882,
                            -0.04122451692819595,
                            -0.2652455270290375,
                            0.1699935495853424
                        ],
                        [
                            -0.5339245200157166,
                            0.5151095390319824,
                            0.14157110452651978,
                            -0.7970119118690491
                        ]
                    ]
                ]
            ],
            [
                -0.11774078756570816,
                0.14548251032829285,
                -0.30525529384613037,
                0.09225843101739883
            ]
        ]
    },
    {
        "config": {
            "data_format": "channels_last",
            "name": "max_pooling2d_1",
            "padding": "valid",
            "pool_size": [
                2,
                2
            ],
            "strides": [
                2,
                2
            ],
            "trainable": true
        },
        "name": "max_pooling2d_1",
        "weights": []
    },
    {
        "config": {
            "activation": "relu",
            "activity_regularizer": null,
            "bias_constraint": null,
            "bias_initializer": {
                "class_name": "Zeros",
                "config": {}
            },
            "bias_regularizer": null,
            "data_format": "channels_last",
            "dilation_rate": [
                1,
                1
            ],
            "filters": 8,
            "kernel_constraint": null,
            "kernel_initializer": {
                "class_name": "VarianceScaling",
                "config": {
                    "distribution": "uniform",
                    "mode": "fan_avg",
                    "scale": 1.0,
                    "seed": null
                }
            },
            "kernel_regularizer": null,
            "kernel_size": [
                3,
                3
            ],
            "name": "conv2d_3",
            "padding": "same",
            "strides": [
                1,
                1
            ],
            "trainable": true,
            "use_bias": true
        },
        "name": "conv2d_3",
        "weights": [
            [
                [
                    [
                        [
                            0.06155643239617348,
                            -0.1359749734401703,
                            -0.05914298817515373,
                            -0.05096449330449104,
                            -0.8007553815841675,
                            0.24132823944091797,
                            0.35495656728744507,
                            -0.04052651301026344
                        ],
                        [
                            -0.21888147294521332,
                            -0.3008038103580475,
                            0.28016090393066406,
                            -0.062013544142246246,
                            -0.26454633474349976,
                            -0.21122179925441742,
                            -0.1602785289287567,
                            -0.6195734739303589
                        ],
                        [
                            0.40559616684913635,
                            0.093300461769104,
                            -0.03834899514913559,
                            -0.20695696771144867,
                            -0.6264100670814514,
                            -0.20293964445590973,
                            0.06682005524635315,
                            0.14513762295246124
                        ],
                        [
                            -0.400815486907959,
                            0.16625085473060608,
                            -0.238069549202919,
                            -0.22943943738937378,
                            0.6958823800086975,
                            0.4412936568260193,
                            -0.05909242108464241,
                            -0.18822342157363892
                        ]
                    ],
                    [
                        [
                            0.3988117277622223,
                            -0.7061066031455994,
                            -0.12064529210329056,
                            -0.25940871238708496,
                            -0.7207815647125244,
                            0.19951748847961426,
                            -0.3260461688041687,
                            0.20548780262470245
                        ],
                        [
                            -0.01235585380345583,
                            -0.17003004252910614,
                            0.06547970324754715,
                            0.5176789164543152,
                            -0.3801080584526062,
                            0.010390284471213818,
                            0.30412983894348145,
                            -0.3474244475364685
                        ],
                        [
                            0.17110860347747803,
                            -0.17614582180976868,
                            0.5501421093940735,
                            0.28115442395210266,
                            -0.13852259516716003,
                            0.27199670672416687,
                            0.2904071509838104,
                            -0.79324871301651
                        ],
                        [
                            -0.544590175151825,
                            -0.10396590828895569,
                            0.590455174446106,
                            0.07508360594511032,
                            0.17197351157665253,
                            -0.17943130433559418,
                            0.4413105547428131,
                            -0.7117798328399658
                        ]
                    ],
                    [
                        [
                            0.12341447919607162,
                            0.08124303817749023,
                            0.05611344054341316,
                            0.2094087302684784,
                            -1.2336913347244263,
                            -0.6018347144126892,
                            -0.4575818181037903,
                            0.13322922587394714
                        ],
                        [
                            -0.2573210299015045,
                            -0.33824485540390015,
                            -0.4697766900062561,
                            -0.13468244671821594,
                            -0.3870178759098053,
                            -0.17134883999824524,
                            0.16736695170402527,
                            -0.026799995452165604
                        ],
                        [
                            0.27511870861053467,
                            -0.35979583859443665,
                            -0.0636691153049469,
                            0.0851985439658165,
                            -0.1455162912607193,
                            -0.006377808749675751,
                            -0.11067816615104675,
                            -0.3114423155784607
                        ],
                        [
                            -0.8952359557151794,
                            0.2356182038784027,
                            0.7554844617843628,
                            -0.11406510323286057,
                            0.3015856444835663,
                            0.19861473143100739,
                            0.2323039472103119,
                            -0.9229798316955566
                        ]
                    ]
                ],
                [
                    [
                        [
                            -0.4059083163738251,
                            -0.2168138474225998,
                            0.11968672275543213,
                            -0.0595581978559494,
                            0.023899171501398087,
                            0.04221953824162483,
                            -0.1545972228050232,
                            0.05083777755498886
                        ],
                        [
                            -0.05354628339409828,
                            0.10305668413639069,
                            0.04707656800746918,
                            0.06923253834247589,
                            0.09818805009126663,
                            -0.0669795349240303,
                            0.19021490216255188,
                            -0.38993072509765625
                        ],
                        [
                            -0.2597954571247101,
                            -0.10795533657073975,
                            -0.22944843769073486,
                            0.12490060180425644,
                            -0.05877859890460968,
                            0.32031574845314026,
                            -0.5075436234474182,
                            -0.16019229590892792
                        ],
                        [
                            -0.19054092466831207,
                            0.28898683190345764,
                            0.23458331823349,
                            0.21841590106487274,
                            0.4029693901538849,
                            -0.17262983322143555,
                            0.018230032175779343,
                            0.5175678133964539
                        ]
                    ],
                    [
                        [
                            -0.06718721985816956,
                            0.25247955322265625,
                            0.18238979578018188,
                            0.4023980498313904,
                            0.14416208863258362,
                            0.5180582404136658,
                            -0.40578097105026245,
                            -0.24307140707969666
                        ],
                        [
                            -0.854275643825531,
                            0.4411166310310364,
                            0.07368301600217819,
                            -0.9516304731369019,
                            -0.09008196741342545,
                            -0.09964726865291595,
                            -0.0490892231464386,
                            -0.05105060711503029
                        ],
                        [
                            -0.4983729124069214,
                            0.1816282719373703,
                            0.1315329223871231,
                            0.18133604526519775,
                            0.19271062314510345,
                            -0.16027399897575378,
                            -0.229628786444664,
                            -0.22304657101631165
                        ],
                        [
                            -0.45040008425712585,
                            -0.0032456989865750074,
                            0.13000397384166718,
                            -0.45367226004600525,
                            0.02607448771595955,
                            -0.10643099993467331,
                            -0.4138210415840149,
                            0.36842259764671326
                        ]
                    ],
                    [
                        [
                            0.2979753315448761,
                            -0.2094869762659073,
                            -0.13874134421348572,
                            0.05911067873239517,
                            -0.3606763780117035,
                            0.4081270098686218,
                            0.23527663946151733,
                            -0.33265283703804016
                        ],
                        [
                            -0.3823409974575043,
                            -0.1577906757593155,
                            0.33547499775886536,
                            0.059027399867773056,
                            0.09244247525930405,
                            0.053418923169374466,
                            0.10838146507740021,
                            0.42746686935424805
                        ],
                        [
                            -0.5915554761886597,
                            0.3048279881477356,
                            -0.015665460377931595,
                            0.017748989164829254,
                            0.10722680389881134,
                            0.23013287782669067,
                            0.26609542965888977,
                            -0.38519608974456787
                        ],
                        [
                            -0.9333814978599548,
                            0.24550969898700714,
                            0.8447298407554626,
                            -0.02370297536253929,
                            0.023919900879263878,
                            -0.3397238850593567,
                            -0.015704013407230377,
                            -0.3760424256324768
                        ]
                    ]
                ],
                [
                    [
                        [
                            0.25049328804016113,
                            0.31995707750320435,
                            -0.5944012999534607,
                            -0.012215210124850273,
                            -0.317538321018219,
                            -0.49839693307876587,
                            -0.49949342012405396,
                            0.3027647137641907
                        ],
                        [
                            -0.38558757305145264,
                            0.24163846671581268,
                            -0.6890661716461182,
                            -0.3208472430706024,
                            -0.03748871386051178,
                            0.1876273900270462,
                            0.3335592448711395,
                            0.023766634985804558
                        ],
                        [
                            -1.0486483573913574,
                            0.137884259223938,
                            -0.45028427243232727,
                            0.6317638158798218,
                            0.05264000967144966,
                            -0.06812747567892075,
                            0.1833352893590927,
                            -0.15213370323181152
                        ],
                        [
                            0.1991308033466339,
                            -0.01768854260444641,
                            0.17757560312747955,
                            -0.1741761565208435,
                            -7.49509345041588e-05,
                            0.05264979228377342,
                            -0.0777539312839508,
                            -0.013848165050148964
                        ]
                    ],
                    [
                        [
                            0.21675902605056763,
                            0.2722017467021942,
                            -0.36591553688049316,
                            -0.00948016531765461,
                            -0.21054300665855408,
                            0.10942795872688293,
                            0.20880652964115143,
                            0.14069409668445587
                        ],
                        [
                            -0.28394758701324463,
                            0.10642508417367935,
                            -0.3129883110523224,
                            -0.2803766131401062,
                            0.20038826763629913,
                            0.40928715467453003,
                            -0.23268605768680573,
                            0.048271190375089645
                        ],
                        [
                            -0.3979581296443939,
                            0.03670039772987366,
                            -0.08627088367938995,
                            -0.12188965827226639,
                            0.2446686029434204,
                            0.13687904179096222,
                            0.1812133640050888,
                            -0.4165390729904175
                        ],
                        [
                            0.43976110219955444,
                            0.05105506256222725,
                            -0.29181402921676636,
                            -0.007080454844981432,
                            0.2338743507862091,
                            -0.24655590951442719,
                            -0.5919991135597229,
                            0.8673214912414551
                        ]
                    ],
                    [
                        [
                            0.6506294012069702,
                            0.12941913306713104,
                            -1.0809614658355713,
                            0.0018749362789094448,
                            -0.8786683082580566,
                            0.06014159321784973,
                            0.36247751116752625,
                            -1.271193265914917
                        ],
                        [
                            -0.5023247599601746,
                            -0.2664627730846405,
                            -0.3379139006137848,
                            -0.2869904637336731,
                            0.38972193002700806,
                            0.40603384375572205,
                            -0.18766143918037415,
                            -0.08931533247232437
                        ],
                        [
                            -0.23278161883354187,
                            0.20535720884799957,
                            0.04634472727775574,
                            -0.29369229078292847,
                            -0.3965093195438385,
                            -0.28628918528556824,
                            0.16574375331401825,
                            -0.36936137080192566
                        ],
                        [
                            0.3248266577720642,
                            0.15452773869037628,
                            0.4969882369041443,
                            -0.4790566861629486,
                            -0.6910419464111328,
                            -0.011291311122477055,
                            -0.47870931029319763,
                            0.702967643737793
                        ]
                    ]
                ]
            ],
            [
                -0.2949894368648529,
                0.11764196306467056,
                0.13565398752689362,
                0.056644007563591,
                0.15961091220378876,
                -0.2408008873462677,
                -0.05987166613340378,
                0.2107963114976883
            ]
        ]
    },
    {
        "config": {
            "activation": "relu",
            "activity_regularizer": null,
            "bias_constraint": null,
            "bias_initializer": {
                "class_name": "Zeros",
                "config": {}
            },
            "bias_regularizer": null,
            "data_format": "channels_last",
            "dilation_rate": [
                1,
                1
            ],
            "filters": 8,
            "kernel_constraint": null,
            "kernel_initializer": {
                "class_name": "VarianceScaling",
                "config": {
                    "distribution": "uniform",
                    "mode": "fan_avg",
                    "scale": 1.0,
                    "seed": null
                }
            },
            "kernel_regularizer": null,
            "kernel_size": [
                3,
                3
            ],
            "name": "conv2d_4",
            "padding": "same",
            "strides": [
                1,
                1
            ],
            "trainable": true,
            "use_bias": true
        },
        "name": "conv2d_4",
        "weights": [
            [
                [
                    [
                        [
                            -0.07942286133766174,
                            -0.04431948810815811,
                            0.2953214943408966,
                            -0.0460314117372036,
                            -0.3480302691459656,
                            -0.48042014241218567,
                            0.04205974563956261,
                            -0.3941834568977356
                        ],
                        [
                            0.06358271092176437,
                            -0.36945033073425293,
                            0.1837180256843567,
                            -0.4228310286998749,
                            0.13719186186790466,
                            -0.1339486539363861,
                            -0.3810485601425171,
                            -0.2465175986289978
                        ],
                        [
                            0.2161906212568283,
                            -0.96876460313797,
                            -0.4795859456062317,
                            0.060850802809000015,
                            0.3678149878978729,
                            -0.3909962773323059,
                            -0.0945819541811943,
                            -0.206304132938385
                        ],
                        [
                            0.2479589432477951,
                            -0.65379399061203,
                            0.22211895883083344,
                            -0.07052386552095413,
                            0.10099911689758301,
                            -0.46709537506103516,
                            0.008572716265916824,
                            -0.05645374208688736
                        ],
                        [
                            -0.3317984342575073,
                            0.0649319738149643,
                            -0.20087820291519165,
                            -0.4275268018245697,
                            -0.18389925360679626,
                            0.22015847265720367,
                            -0.08597675710916519,
                            -0.03324330225586891
                        ],
                        [
                            -0.1693938672542572,
                            0.16322006285190582,
                            0.13684001564979553,
                            0.20046256482601166,
                            0.3023739457130432,
                            -0.01964637264609337,
                            -0.18495610356330872,
                            -0.2901920676231384
                        ],
                        [
                            -0.19294117391109467,
                            -1.0188966989517212,
                            -0.15708096325397491,
                            0.3519382178783417,
                            0.039658598601818085,
                            -0.503523588180542,
                            -0.0007188477902673185,
                            -0.14563901722431183
                        ],
                        [
                            -0.05951058492064476,
                            -0.1087021678686142,
                            -0.4454667568206787,
                            0.1390024572610855,
                            0.08498489856719971,
                            0.6773757338523865,
                            -0.13555404543876648,
                            0.17728765308856964
                        ]
                    ],
                    [
                        [
                            0.2882302403450012,
                            0.18210211396217346,
                            0.47470977902412415,
                            0.28061342239379883,
                            -0.006290195509791374,
                            -0.786812424659729,
                            -0.20331059396266937,
                            -0.7564373016357422
                        ],
                        [
                            -0.6728870868682861,
                            -0.15113043785095215,
                            -0.2289932519197464,
                            0.0355888232588768,
                            0.12051849067211151,
                            0.38214555382728577,
                            -0.13467146456241608,
                            -0.445570707321167
                        ],
                        [
                            0.028423652052879333,
                            -1.5873357057571411,
                            0.13271786272525787,
                            0.2784140706062317,
                            -0.15899360179901123,
                            -0.2357158660888672,
                            0.07029091566801071,
                            0.1452912986278534
                        ],
                        [
                            0.3185586929321289,
                            -0.21669399738311768,
                            0.24630802869796753,
                            -0.4549601972103119,
                            -0.17898638546466827,
                            -1.0323604345321655,
                            -0.2538630962371826,
                            -0.12138138711452484
                        ],
                        [
                            -0.11090437322854996,
                            0.6481212377548218,
                            -0.3289181590080261,
                            -1.2215805053710938,
                            -0.25568845868110657,
                            0.013910938985645771,
                            -0.05129620060324669,
                            -0.09074825793504715
                        ],
                        [
                            -0.1872275322675705,
                            -0.27890050411224365,
                            0.08004900068044662,
                            -0.6763500571250916,
                            0.05324201658368111,
                            -0.2991325855255127,
                            0.09978365153074265,
                            0.047085244208574295
                        ],
                        [
                            0.06618764996528625,
                            -0.4882456064224243,
                            -0.5733046531677246,
                            0.23526184260845184,
                            -0.049683667719364166,
                            0.21598464250564575,
                            -0.11809322237968445,
                            -0.1860748827457428
                        ],
                        [
                            -0.8447489738464355,
                            0.2710086405277252,
                            -0.1256580948829651,
                            0.014785654842853546,
                            0.04138208553195,
                            -0.2112065702676773,
                            -0.10001920163631439,
                            0.2972123622894287
                        ]
                    ],
                    [
                        [
                            0.2043071687221527,
                            0.6621717810630798,
                            0.32492029666900635,
                            0.41882070899009705,
                            0.3459968864917755,
                            -0.38708192110061646,
                            -0.02245865762233734,
                            0.21771250665187836
                        ],
                        [
                            -0.6992138624191284,
                            0.16689814627170563,
                            -0.5001434087753296,
                            0.04841948673129082,
                            0.08268383145332336,
                            -0.05441651493310928,
                            -0.05617736279964447,
                            0.12871131300926208
                        ],
                        [
                            0.18299075961112976,
                            -0.028489815071225166,
                            -0.011095057241618633,
                            0.15286585688591003,
                            -0.2641569674015045,
                            0.09128013253211975,
                            -0.3647221028804779,
                            -0.09257633984088898
                        ],
                        [
                            0.29195138812065125,
                            -0.07703260332345963,
                            0.12787863612174988,
                            -0.5013415813446045,
                            -0.11197715252637863,
                            0.288652628660202,
                            -0.2659272253513336,
                            0.21323896944522858
                        ],
                        [
                            0.11160481721162796,
                            0.1598004400730133,
                            -0.5056582689285278,
                            -0.11023414134979248,
                            -0.06447378545999527,
                            -0.3037893772125244,
                            -0.09834730625152588,
                            0.05438017472624779
                        ],
                        [
                            0.0024149641394615173,
                            -0.014589531347155571,
                            0.029650289565324783,
                            -0.1459665149450302,
                            -0.009257841855287552,
                            -0.42237937450408936,
                            -0.19839388132095337,
                            0.45715129375457764
                        ],
                        [
                            0.05310554429888725,
                            -0.6282952427864075,
                            -0.8391631841659546,
                            0.1990976333618164,
                            -0.08930561691522598,
                            0.28264543414115906,
                            0.018879929557442665,
                            0.01841765269637108
                        ],
                        [
                            -0.17684565484523773,
                            -0.04077659174799919,
                            -0.3508740961551666,
                            -0.2688063681125641,
                            0.46326693892478943,
                            -0.4991350471973419,
                            -0.1722141057252884,
                            -0.09250584989786148
                        ]
                    ]
                ],
                [
                    [
                        [
                            0.25188741087913513,
                            -0.4200758635997772,
                            0.17302703857421875,
                            -0.06137554720044136,
                            0.15609553456306458,
                            -0.5149989724159241,
                            -0.04247155413031578,
                            0.2278311550617218
                        ],
                        [
                            -0.5086939930915833,
                            0.015366364270448685,
                            -0.5767853260040283,
                            -0.2650899887084961,
                            -0.1951240450143814,
                            0.10975132882595062,
                            -0.4104767143726349,
                            -0.5838260650634766
                        ],
                        [
                            0.01643550954759121,
                            -0.5156242251396179,
                            0.024294858798384666,
                            0.032210253179073334,
                            -0.08377021551132202,
                            -0.1686452478170395,
                            0.1153194010257721,
                            -0.22393953800201416
                        ],
                        [
                            -0.35108649730682373,
                            -0.6196466684341431,
                            -0.20148631930351257,
                            0.10214381664991379,
                            0.3384767174720764,
                            -0.15203474462032318,
                            -0.09303522109985352,
                            0.07455331087112427
                        ],
                        [
                            -0.7383387088775635,
                            0.22325102984905243,
                            -0.0004049079434480518,
                            -0.4666875898838043,
                            -0.02257464826107025,
                            0.055090997368097305,
                            -0.41903167963027954,
                            0.26275113224983215
                        ],
                        [
                            -0.021797237917780876,
                            0.29985180497169495,
                            0.3769643306732178,
                            -0.08123622834682465,
                            0.10170804709196091,
                            -0.3004089891910553,
                            0.018754955381155014,
                            -0.5425143837928772
                        ],
                        [
                            -0.3978922963142395,
                            -0.8064860105514526,
                            -0.38050663471221924,
                            0.2718748450279236,
                            0.30183151364326477,
                            -0.061351172626018524,
                            -0.3471055030822754,
                            -0.11249466985464096
                        ],
                        [
                            0.01872096210718155,
                            0.1723000556230545,
                            0.35383549332618713,
                            -0.27288299798965454,
                            -0.44921785593032837,
                            0.23196357488632202,
                            -0.15066656470298767,
                            -0.49449092149734497
                        ]
                    ],
                    [
                        [
                            0.14691907167434692,
                            -0.01382602658122778,
                            -0.16437657177448273,
                            0.08315322548151016,
                            -0.6250659227371216,
                            -0.07045277208089828,
                            0.0840030387043953,
                            -0.2727179527282715
                        ],
                        [
                            -0.4130555987358093,
                            0.09554347395896912,
                            -0.278434693813324,
                            -0.9899008870124817,
                            -0.07177255302667618,
                            -0.006256363354623318,
                            -0.1781262308359146,
                            -0.04840711131691933
                        ],
                        [
                            -0.06916695088148117,
                            -0.4471610486507416,
                            0.18932922184467316,
                            -0.16666977107524872,
                            0.27133816480636597,
                            -0.34875357151031494,
                            -0.11510391533374786,
                            -0.413250207901001
                        ],
                        [
                            -0.14458929002285004,
                            -0.3905458450317383,
                            -0.29400503635406494,
                            0.07184719294309616,
                            -0.036787714809179306,
                            -0.0333092138171196,
                            -0.12843528389930725,
                            0.12789979577064514
                        ],
                        [
                            -1.2405977249145508,
                            -0.012590192258358002,
                            -0.37987321615219116,
                            -0.6099578738212585,
                            -0.32495060563087463,
                            -0.4302532374858856,
                            -0.1451759934425354,
                            -0.0745353177189827
                        ],
                        [
                            0.004298446699976921,
                            0.02406354434788227,
                            0.08325831592082977,
                            -0.09005570411682129,
                            -0.10115037858486176,
                            -0.31908854842185974,
                            0.0016345729818567634,
                            -0.3996213972568512
                        ],
                        [
                            -0.19402816891670227,
                            -0.5210137367248535,
                            -0.5116419196128845,
                            0.16900166869163513,
                            0.10026541352272034,
                            0.34425088763237,
                            -0.2729637920856476,
                            0.470456063747406
                        ],
                        [
                            0.26511937379837036,
                            0.029600299894809723,
                            0.27028748393058777,
                            0.2141425460577011,
                            -0.4082867205142975,
                            -0.1636897176504135,
                            -0.322270005941391,
                            -0.5179872512817383
                        ]
                    ],
                    [
                        [
                            0.2668638527393341,
                            0.382304847240448,
                            -0.848624050617218,
                            -0.13498830795288086,
                            0.19111277163028717,
                            0.26587480306625366,
                            0.10691113024950027,
                            -0.2178952693939209
                        ],
                        [
                            -0.31096693873405457,
                            0.2776670753955841,
                            -0.11938782781362534,
                            -0.2280426323413849,
                            0.10107211023569107,
                            -0.4146602749824524,
                            -0.48717713356018066,
                            0.1798223853111267
                        ],
                        [
                            -0.2797620892524719,
                            -0.14112618565559387,
                            0.2403223067522049,
                            -0.32646939158439636,
                            0.07188869267702103,
                            0.10644370317459106,
                            -0.2485046535730362,
                            -0.44417062401771545
                        ],
                        [
                            -0.2739056646823883,
                            -0.3058922290802002,
                            -0.10399883985519409,
                            -0.0849943459033966,
                            -0.44095540046691895,
                            0.43130913376808167,
                            -0.20066149532794952,
                            -0.031606122851371765
                        ],
                        [
                            -1.1844762563705444,
                            0.07686623185873032,
                            0.0730491653084755,
                            -0.7020766735076904,
                            -0.06506281346082687,
                            -0.5926862359046936,
                            -0.4121878445148468,
                            0.2821522057056427
                        ],
                        [
                            -0.46138960123062134,
                            -0.16682051122188568,
                            -0.1292027086019516,
                            -0.9767420887947083,
                            -0.23950910568237305,
                            -0.900963306427002,
                            0.050119999796152115,
                            0.5296971201896667
                        ],
                        [
                            -0.24188385903835297,
                            -0.1953265219926834,
                            -0.28666451573371887,
                            0.17785067856311798,
                            -0.41583019495010376,
                            0.04968341439962387,
                            -0.045078590512275696,
                            0.011922628618776798
                        ],
                        [
                            -0.15657556056976318,
                            -0.4445945918560028,
                            0.5330038070678711,
                            0.3282923102378845,
                            0.06590389460325241,
                            -0.1787845939397812,
                            -0.45625945925712585,
                            -0.5097714066505432
                        ]
                    ]
                ],
                [
                    [
                        [
                            -0.04515863209962845,
                            -0.5452896356582642,
                            -0.18156912922859192,
                            -0.40921729803085327,
                            0.1816113442182541,
                            0.2272346317768097,
                            -0.13815930485725403,
                            -0.05362624675035477
                        ],
                        [
                            -0.2577800750732422,
                            0.11086123436689377,
                            -0.032557565718889236,
                            -0.051961272954940796,
                            -0.5209155678749084,
                            0.3731968402862549,
                            -0.5022639632225037,
                            0.37212374806404114
                        ],
                        [
                            0.45586735010147095,
                            0.4520227611064911,
                            -0.15042130649089813,
                            -0.1474347710609436,
                            -0.4550800621509552,
                            -0.07345300167798996,
                            -0.0922868400812149,
                            -0.7058168649673462
                        ],
                        [
                            0.029740193858742714,
                            -0.49355119466781616,
                            -0.7847821116447449,
                            -0.18408648669719696,
                            0.10852178186178207,
                            0.14024630188941956,
                            -0.04390102997422218,
                            -0.29640617966651917
                        ],
                        [
                            -0.3579389452934265,
                            -0.25195813179016113,
                            0.25712865591049194,
                            0.32885196805000305,
                            -0.10541103780269623,
                            -0.9239892363548279,
                            -0.38687047362327576,
                            -0.5785621404647827
                        ],
                        [
                            -0.06482896208763123,
                            -0.7711256742477417,
                            0.07138651609420776,
                            -0.05545482039451599,
                            0.005140214692801237,
                            -0.19687533378601074,
                            -0.08807910233736038,
                            -0.353725403547287
                        ],
                        [
                            -0.25864535570144653,
                            0.2629987299442291,
                            0.13621702790260315,
                            0.166757270693779,
                            0.02409161999821663,
                            0.20821350812911987,
                            -0.21976996958255768,
                            0.4004024863243103
                        ],
                        [
                            0.05460937321186066,
                            0.28513532876968384,
                            -0.14299730956554413,
                            -1.0261365175247192,
                            0.19383637607097626,
                            -0.7953357696533203,
                            -0.11117023229598999,
                            -0.3233799636363983
                        ]
                    ],
                    [
                        [
                            -0.42472490668296814,
                            -0.23331132531166077,
                            -0.09929689764976501,
                            -0.6054821610450745,
                            0.4098885953426361,
                            -0.2993444800376892,
                            0.08313543349504471,
                            -0.11458639055490494
                        ],
                        [
                            0.01743607223033905,
                            -0.07973728328943253,
                            0.17465315759181976,
                            0.13578812777996063,
                            -0.3158852756023407,
                            -0.39535582065582275,
                            -0.3351200222969055,
                            -0.0037700971588492393
                        ],
                        [
                            0.050574008375406265,
                            0.43248793482780457,
                            0.22209061682224274,
                            -0.5721805095672607,
                            0.2741430997848511,
                            -0.016649603843688965,
                            -0.325958788394928,
                            -0.4579703211784363
                        ],
                        [
                            0.01523294486105442,
                            -0.03530096262693405,
                            -0.29621195793151855,
                            -0.2171027511358261,
                            0.07516216486692429,
                            0.32612624764442444,
                            -0.014410773292183876,
                            -0.15319837629795074
                        ],
                        [
                            -0.19383814930915833,
                            -0.5460448265075684,
                            0.4383549690246582,
                            0.281514048576355,
                            -0.25108522176742554,
                            -0.3066946566104889,
                            -0.34482020139694214,
                            -0.2582400441169739
                        ],
                        [
                            -0.18244431912899017,
                            -0.10503505915403366,
                            -0.10815281420946121,
                            -0.8265655040740967,
                            0.09668371826410294,
                            -0.14396196603775024,
                            -0.6477631330490112,
                            0.39438948035240173
                        ],
                        [
                            -0.5230280756950378,
                            0.18469926714897156,
                            0.054708633571863174,
                            0.04717477411031723,
                            0.47783517837524414,
                            0.11669313907623291,
                            0.07084593176841736,
                            0.1841774433851242
                        ],
                        [
                            0.5293121337890625,
                            -0.09391019493341446,
                            -0.2145504504442215,
                            -0.9345439672470093,
                            -0.4843624234199524,
                            -0.8354019522666931,
                            -0.05229080095887184,
                            -0.31773248314857483
                        ]
                    ],
                    [
                        [
                            0.6145890951156616,
                            0.21148616075515747,
                            -0.05722136050462723,
                            -0.8063547611236572,
                            0.1650894284248352,
                            -0.24894767999649048,
                            -0.053290463984012604,
                            0.0497208796441555
                        ],
                        [
                            0.017709817737340927,
                            -0.5897524356842041,
                            0.049945954233407974,
                            0.001876187976449728,
                            0.15798817574977875,
                            -1.045646071434021,
                            -0.32212668657302856,
                            0.3231726884841919
                        ],
                        [
                            -0.13757866621017456,
                            0.05100208520889282,
                            0.24144908785820007,
                            -0.30544397234916687,
                            0.27945953607559204,
                            0.1542610228061676,
                            -0.3145476281642914,
                            -0.06126134842634201
                        ],
                        [
                            0.2874698340892792,
                            0.09504898637533188,
                            -0.6324929594993591,
                            -0.3156532347202301,
                            0.02411673404276371,
                            0.0968143567442894,
                            -0.14930972456932068,
                            0.42335420846939087
                        ],
                        [
                            0.18347682058811188,
                            -0.6932168006896973,
                            0.13125619292259216,
                            -0.0008220481686294079,
                            -0.11312481015920639,
                            -0.47793933749198914,
                            -0.10831481963396072,
                            -0.07349880039691925
                        ],
                        [
                            -0.6060624718666077,
                            -0.280343621969223,
                            -0.18604861199855804,
                            -0.5888758897781372,
                            0.20568804442882538,
                            -0.3274885416030884,
                            -0.28754523396492004,
                            0.27188774943351746
                        ],
                        [
                            -0.25875890254974365,
                            0.03487914428114891,
                            0.06067251041531563,
                            0.010408048518002033,
                            -0.00998908281326294,
                            -0.9794111847877502,
                            0.04866940528154373,
                            -0.2791012227535248
                        ],
                        [
                            0.26364877820014954,
                            -0.08889854699373245,
                            0.054056115448474884,
                            -0.5216213464736938,
                            -0.03623070567846298,
                            0.37832891941070557,
                            -0.06770387291908264,
                            -0.12254969030618668
                        ]
                    ]
                ]
            ],
            [
                0.06596604734659195,
                -0.1497570127248764,
                -0.06721818447113037,
                -0.14324402809143066,
                -0.037301015108823776,
                -0.04634551331400871,
                -0.32021650671958923,
                -0.1334179937839508
            ]
        ]
    },
    {
        "config": {
            "data_format": "channels_last",
            "name": "max_pooling2d_2",
            "padding": "valid",
            "pool_size": [
                2,
                2
            ],
            "strides": [
                2,
                2
            ],
            "trainable": true
        },
        "name": "max_pooling2d_2",
        "weights": []
    },
    {
        "config": {
            "activation": "relu",
            "activity_regularizer": null,
            "bias_constraint": null,
            "bias_initializer": {
                "class_name": "Zeros",
                "config": {}
            },
            "bias_regularizer": null,
            "data_format": "channels_last",
            "dilation_rate": [
                1,
                1
            ],
            "filters": 16,
            "kernel_constraint": null,
            "kernel_initializer": {
                "class_name": "VarianceScaling",
                "config": {
                    "distribution": "uniform",
                    "mode": "fan_avg",
                    "scale": 1.0,
                    "seed": null
                }
            },
            "kernel_regularizer": null,
            "kernel_size": [
                3,
                3
            ],
            "name": "conv2d_5",
            "padding": "same",
            "strides": [
                1,
                1
            ],
            "trainable": true,
            "use_bias": true
        },
        "name": "conv2d_5",
        "weights": [
            [
                [
                    [
                        [
                            -0.027432257309556007,
                            -0.0016952372388914227,
                            -0.12099908292293549,
                            -0.6555285453796387,
                            -0.03439044952392578,
                            -0.35303133726119995,
                            -0.09878867864608765,
                            0.10233673453330994,
                            0.09719870984554291,
                            0.1266372799873352,
                            -0.45979902148246765,
                            -0.7624426484107971,
                            0.2574116587638855,
                            -0.16684633493423462,
                            -0.1049417108297348,
                            0.05673879012465477
                        ],
                        [
                            0.3043621778488159,
                            0.29839494824409485,
                            -0.02688569575548172,
                            -0.3878123462200165,
                            -0.21849465370178223,
                            -0.0948483869433403,
                            -0.06770382076501846,
                            0.2830609381198883,
                            0.22023262083530426,
                            -0.04151817783713341,
                            -0.6080073714256287,
                            -0.07981907576322556,
                            -0.026544777676463127,
                            -0.044783998280763626,
                            -1.1394063234329224,
                            0.3336084485054016
                        ],
                        [
                            0.126663476228714,
                            -0.15491566061973572,
                            0.07416053861379623,
                            -0.19052612781524658,
                            0.2279040515422821,
                            -0.24967287480831146,
                            0.0473032109439373,
                            0.030399462208151817,
                            -0.4686405658721924,
                            -0.10778676718473434,
                            -0.5417658686637878,
                            -0.643976628780365,
                            0.39729610085487366,
                            -0.41576093435287476,
                            0.3065216541290283,
                            -0.1308150291442871
                        ],
                        [
                            0.23210708796977997,
                            0.021233415231108665,
                            -0.22671933472156525,
                            0.1903967410326004,
                            0.2932124435901642,
                            0.8051161170005798,
                            -0.2938072979450226,
                            0.3083556890487671,
                            -0.33983567357063293,
                            0.0667228251695633,
                            0.031153859570622444,
                            -0.3879159390926361,
                            -0.3220069408416748,
                            0.206027090549469,
                            -0.4880159795284271,
                            -0.6233663558959961
                        ],
                        [
                            0.20018194615840912,
                            -0.0348995104432106,
                            0.0786333978176117,
                            -0.005896902177482843,
                            0.1201789379119873,
                            0.05375155434012413,
                            -0.1271580308675766,
                            0.1793592870235443,
                            0.08405467122793198,
                            -0.017687497660517693,
                            -1.6104109287261963,
                            -0.3428988754749298,
                            0.18525393307209015,
                            -0.0689128115773201,
                            0.08922027796506882,
                            -0.4613148272037506
                        ],
                        [
                            -0.5486900210380554,
                            0.5241087675094604,
                            0.12360723316669464,
                            -0.2597876787185669,
                            -0.22118976712226868,
                            -0.31895774602890015,
                            0.22544898092746735,
                            -0.43126749992370605,
                            0.3196355700492859,
                            -0.053807880729436874,
                            -0.5389270186424255,
                            0.47561562061309814,
                            -0.4713127613067627,
                            -0.288224458694458,
                            -0.8898746967315674,
                            -0.0277676060795784
                        ],
                        [
                            0.08696255087852478,
                            -0.013526088558137417,
                            0.058427419513463974,
                            0.1609908491373062,
                            -0.2944744825363159,
                            0.00846589170396328,
                            -0.32371485233306885,
                            0.10180417448282242,
                            -0.004198628477752209,
                            0.12210337072610855,
                            -0.2815358340740204,
                            0.2049732357263565,
                            0.08643713593482971,
                            -0.10422368347644806,
                            0.03228013217449188,
                            0.12027358263731003
                        ],
                        [
                            0.5152904391288757,
                            0.2555321156978607,
                            0.11067008227109909,
                            0.022510210052132607,
                            -0.09148474782705307,
                            -0.3666536211967468,
                            0.37371060252189636,
                            -0.3797098994255066,
                            -0.5616309642791748,
                            -0.3278972804546356,
                            -0.1537427008152008,
                            -0.7217645049095154,
                            -0.19677723944187164,
                            0.1710505187511444,
                            0.4593176245689392,
                            -0.42042967677116394
                        ]
                    ],
                    [
                        [
                            0.045193567872047424,
                            0.08440710604190826,
                            -0.27188408374786377,
                            0.29791244864463806,
                            -0.5206928253173828,
                            -0.6252771019935608,
                            -0.19662480056285858,
                            0.025011669844388962,
                            0.01390462089329958,
                            0.2586539089679718,
                            -0.1593889445066452,
                            0.11245713382959366,
                            -0.04693210870027542,
                            -0.09195955097675323,
                            0.01136748492717743,
                            -0.3282032608985901
                        ],
                        [
                            -0.27588391304016113,
                            0.07558581978082657,
                            -0.08835995197296143,
                            -0.41696178913116455,
                            -0.0002866096037905663,
                            0.1534329503774643,
                            -0.1601770967245102,
                            0.09373896569013596,
                            0.2119550257921219,
                            -0.3524455428123474,
                            -0.5748038291931152,
                            -0.21003106236457825,
                            0.25967147946357727,
                            0.002409412758424878,
                            -0.3894163966178894,
                            0.21789424121379852
                        ],
                        [
                            0.03451916575431824,
                            0.028034020215272903,
                            0.13726621866226196,
                            0.07380086183547974,
                            -0.04416462033987045,
                            -0.09981344640254974,
                            0.08768255263566971,
                            -0.018505649641156197,
                            -0.049598317593336105,
                            0.06898704171180725,
                            -0.10937709361314774,
                            -0.36312422156333923,
                            0.16684070229530334,
                            -0.9203096628189087,
                            0.04057162627577782,
                            -0.18582791090011597
                        ],
                        [
                            0.01774817891418934,
                            0.12198381870985031,
                            -0.24354633688926697,
                            -0.06900038570165634,
                            -0.2073242962360382,
                            0.04903978109359741,
                            -0.2640013098716736,
                            0.3872695863246918,
                            0.22583259642124176,
                            0.2521824240684509,
                            -0.31891533732414246,
                            0.07864043861627579,
                            -0.2518500089645386,
                            0.03255239501595497,
                            -0.22099101543426514,
                            0.2662738263607025
                        ],
                        [
                            0.22780923545360565,
                            0.15285371243953705,
                            -0.05117487907409668,
                            0.04885224625468254,
                            -0.29753193259239197,
                            -0.24908514320850372,
                            0.15483443439006805,
                            -0.05812903493642807,
                            0.05043257400393486,
                            0.17382098734378815,
                            -0.19679197669029236,
                            -0.35103681683540344,
                            0.13881000876426697,
                            -0.28374212980270386,
                            -0.049580588936805725,
                            -0.15046454966068268
                        ],
                        [
                            -0.272007554769516,
                            -0.032669760286808014,
                            -0.0016970112919807434,
                            -0.09209375083446503,
                            0.07744546234607697,
                            -0.006638248451054096,
                            -0.40325963497161865,
                            -0.18016354739665985,
                            0.30884596705436707,
                            -0.24324890971183777,
                            -0.43501076102256775,
                            0.07980576157569885,
                            -0.22853076457977295,
                            0.12448061257600784,
                            -0.9945371747016907,
                            -0.4968997538089752
                        ],
                        [
                            -0.008630628697574139,
                            0.038969021290540695,
                            0.0662328451871872,
                            0.04315909743309021,
                            0.06704480201005936,
                            0.1397402584552765,
                            -0.07166736572980881,
                            -0.15133921802043915,
                            0.01942131668329239,
                            0.15572379529476166,
                            -0.07088489085435867,
                            0.075367771089077,
                            -0.08831064403057098,
                            -0.26150035858154297,
                            0.16967499256134033,
                            -0.03041168302297592
                        ],
                        [
                            -0.14471371471881866,
                            -0.10945916175842285,
                            0.06760258227586746,
                            -0.3493308126926422,
                            -0.09952772408723831,
                            -0.08614780008792877,
                            -0.09579417109489441,
                            -0.43443670868873596,
                            -0.18397392332553864,
                            0.1323217749595642,
                            0.2428952008485794,
                            -0.28316497802734375,
                            0.3066854178905487,
                            0.40752458572387695,
                            0.13605499267578125,
                            -0.9645593762397766
                        ]
                    ],
                    [
                        [
                            0.04641832783818245,
                            0.26326984167099,
                            0.1308816373348236,
                            0.10480159521102905,
                            -0.7096923589706421,
                            -0.17008565366268158,
                            0.018492987379431725,
                            0.12993629276752472,
                            -0.023337766528129578,
                            0.0818731039762497,
                            -0.45820680260658264,
                            -0.3490575850009918,
                            0.0008797098998911679,
                            0.02723216451704502,
                            0.4966793954372406,
                            -0.39584967494010925
                        ],
                        [
                            -0.2017173320055008,
                            -0.1524595469236374,
                            0.29347482323646545,
                            -0.03327392786741257,
                            -1.3320236206054688,
                            0.511326014995575,
                            -0.6335036754608154,
                            -0.10248616337776184,
                            0.17933562397956848,
                            0.09799438714981079,
                            0.06739210337400436,
                            -0.40258049964904785,
                            -0.043545838445425034,
                            0.21936294436454773,
                            -0.4451112747192383,
                            0.18616291880607605
                        ],
                        [
                            0.2169823944568634,
                            0.2904149889945984,
                            0.4270058870315552,
                            0.009114953689277172,
                            -0.5578672289848328,
                            0.1987677961587906,
                            -0.0012497680727392435,
                            0.21740606427192688,
                            0.28087908029556274,
                            0.10664233565330505,
                            0.6143155694007874,
                            -0.34454673528671265,
                            0.2876923382282257,
                            -0.16463369131088257,
                            0.05698920786380768,
                            0.11090032011270523
                        ],
                        [
                            0.29138094186782837,
                            0.6463901400566101,
                            -0.08847981691360474,
                            0.03986131399869919,
                            0.1421429067850113,
                            -0.10487133264541626,
                            0.044317688792943954,
                            0.22094295918941498,
                            0.3827934265136719,
                            0.47708019614219666,
                            -0.2688155174255371,
                            -0.007819612510502338,
                            -0.5096372961997986,
                            0.10518650710582733,
                            0.2577517330646515,
                            0.7720263600349426
                        ],
                        [
                            -0.049954697489738464,
                            0.15778830647468567,
                            0.07797151058912277,
                            -0.04212944582104683,
                            -0.5964141488075256,
                            0.11804764717817307,
                            0.19524163007736206,
                            -0.39360448718070984,
                            0.2537018060684204,
                            0.12464902549982071,
                            -0.20769034326076508,
                            -0.7187613844871521,
                            0.13189998269081116,
                            -0.36354172229766846,
                            0.17279215157032013,
                            0.26037201285362244
                        ],
                        [
                            -0.4342380166053772,
                            0.2229645997285843,
                            0.12183652073144913,
                            -0.060212645679712296,
                            -0.4231494963169098,
                            0.125548854470253,
                            -0.1714409738779068,
                            0.2718377709388733,
                            0.2115292251110077,
                            0.023189587518572807,
                            -0.15239596366882324,
                            0.008392410352826118,
                            0.07340653240680695,
                            0.12294621765613556,
                            -0.2579653859138489,
                            0.24251362681388855
                        ],
                        [
                            0.1283259242773056,
                            0.2855362594127655,
                            -0.3603917062282562,
                            -0.12083832174539566,
                            0.06328069418668747,
                            -0.04975811764597893,
                            0.22272877395153046,
                            0.09750046581029892,
                            0.12590333819389343,
                            0.17245182394981384,
                            0.24202056229114532,
                            -0.0849616527557373,
                            0.07181394845247269,
                            -0.005588024854660034,
                            0.3753708600997925,
                            0.053927309811115265
                        ],
                        [
                            0.6480291485786438,
                            0.040445417165756226,
                            0.41341862082481384,
                            -0.03680507093667984,
                            -1.290665626525879,
                            0.12738582491874695,
                            -0.10590274631977081,
                            -0.32858461141586304,
                            0.020134788006544113,
                            0.00805386807769537,
                            0.23900042474269867,
                            -0.07947442680597305,
                            -0.11208830773830414,
                            0.3698895275592804,
                            -0.11437071114778519,
                            -0.7643206119537354
                        ]
                    ]
                ],
                [
                    [
                        [
                            -0.1457604616880417,
                            -0.3486625850200653,
                            0.2843700349330902,
                            -0.8766579627990723,
                            0.3669293522834778,
                            0.2500866949558258,
                            -0.7696095705032349,
                            0.27727439999580383,
                            0.31803083419799805,
                            -0.33872029185295105,
                            -0.1710355281829834,
                            0.0027530083898454905,
                            0.3416098952293396,
                            -0.006891980767250061,
                            -0.5593438148498535,
                            0.07321137189865112
                        ],
                        [
                            0.24205859005451202,
                            -1.130629062652588,
                            0.27229300141334534,
                            -0.3361911177635193,
                            -0.03634679317474365,
                            0.08592639863491058,
                            -0.21062877774238586,
                            0.08552475273609161,
                            -0.1455552875995636,
                            -0.28912898898124695,
                            -0.11398394405841827,
                            0.13428935408592224,
                            -0.24061834812164307,
                            -0.010227055288851261,
                            0.05084558576345444,
                            -0.5229737758636475
                        ],
                        [
                            -0.06904464960098267,
                            -0.8953790068626404,
                            -0.05053772032260895,
                            -0.17544884979724884,
                            -0.04307893291115761,
                            0.1273244470357895,
                            -0.06882968544960022,
                            0.1683436781167984,
                            -0.08003312349319458,
                            -0.8445345759391785,
                            -0.3037160038948059,
                            -0.0077483379282057285,
                            0.17575089633464813,
                            -0.16895294189453125,
                            -0.10808299481868744,
                            0.30624398589134216
                        ],
                        [
                            0.10649625957012177,
                            -0.008901247754693031,
                            -0.04236377403140068,
                            -0.5479353070259094,
                            0.0872320756316185,
                            -0.2612202763557434,
                            0.296736478805542,
                            -0.36785852909088135,
                            -0.5030126571655273,
                            0.13542594015598297,
                            0.02954409085214138,
                            0.013960227370262146,
                            0.0628868043422699,
                            -0.021937740966677666,
                            0.1442771553993225,
                            0.04581098258495331
                        ],
                        [
                            0.03095393441617489,
                            -0.8720314502716064,
                            0.31045329570770264,
                            0.07908082008361816,
                            0.19307465851306915,
                            -0.20778383314609528,
                            -0.38873815536499023,
                            0.014586791396141052,
                            -0.2578428089618683,
                            -0.5095154047012329,
                            -0.03245178610086441,
                            -0.21074189245700836,
                            0.06409140676259995,
                            0.2684043347835541,
                            0.13201093673706055,
                            -0.5029174089431763
                        ],
                        [
                            -0.3455941379070282,
                            0.24537324905395508,
                            -0.03870997950434685,
                            -0.34983909130096436,
                            0.48709502816200256,
                            0.6629640460014343,
                            -0.42182496190071106,
                            0.3017219305038452,
                            0.029105650261044502,
                            -0.6521042585372925,
                            -0.28727012872695923,
                            -0.12321482598781586,
                            -0.3241528272628784,
                            -0.046534113585948944,
                            0.026106834411621094,
                            -0.484811931848526
                        ],
                        [
                            0.08194281160831451,
                            0.10110396146774292,
                            -0.20396985113620758,
                            -0.08121293783187866,
                            -0.046053845435380936,
                            -0.19303733110427856,
                            -0.05677315965294838,
                            0.06897515803575516,
                            0.17299675941467285,
                            -0.3796423077583313,
                            -0.313393235206604,
                            0.03399039804935455,
